digraph Tree {
node [shape=box, style="filled, rounded", color="black", fontname=helvetica] ;
edge [fontname=helvetica] ;
0 [label="X[1] <= 0.21\ngini = 0.5\nsamples = 52\nvalue = [38, 42]", fillcolor="#ecf6fd"] ;
1 [label="X[0] <= -0.62\ngini = 0.18\nsamples = 24\nvalue = [4, 35]", fillcolor="#50a8e8"] ;
0 -> 1 [labeldistance=2.5, labelangle=45, headlabel="True"] ;
2 [label="gini = 0.0\nsamples = 2\nvalue = [3, 0]", fillcolor="#e58139"] ;
1 -> 2 ;
3 [label="X[1] <= 0.05\ngini = 0.05\nsamples = 22\nvalue = [1, 35]", fillcolor="#3fa0e6"] ;
1 -> 3 ;
4 [label="gini = 0.0\nsamples = 16\nvalue = [0, 27]", fillcolor="#399de5"] ;
3 -> 4 ;
5 [label="X[0] <= 0.68\ngini = 0.2\nsamples = 6\nvalue = [1, 8]", fillcolor="#52a9e8"] ;
3 -> 5 ;
6 [label="gini = 0.0\nsamples = 3\nvalue = [0, 5]", fillcolor="#399de5"] ;
5 -> 6 ;
7 [label="X[0] <= 1.07\ngini = 0.38\nsamples = 3\nvalue = [1, 3]", fillcolor="#7bbeee"] ;
5 -> 7 ;
8 [label="gini = 0.0\nsamples = 1\nvalue = [1, 0]", fillcolor="#e58139"] ;
7 -> 8 ;
9 [label="gini = 0.0\nsamples = 2\nvalue = [0, 3]", fillcolor="#399de5"] ;
7 -> 9 ;
10 [label="X[1] <= 0.65\ngini = 0.28\nsamples = 28\nvalue = [34, 7]", fillcolor="#ea9b62"] ;
0 -> 10 [labeldistance=2.5, labelangle=-45, headlabel="False"] ;
11 [label="X[0] <= 1.69\ngini = 0.43\nsamples = 14\nvalue = [13, 6]", fillcolor="#f1bb94"] ;
10 -> 11 ;
12 [label="X[1] <= 0.35\ngini = 0.23\nsamples = 11\nvalue = [13, 2]", fillcolor="#e99457"] ;
11 -> 12 ;
13 [label="gini = 0.0\nsamples = 3\nvalue = [4, 0]", fillcolor="#e58139"] ;
12 -> 13 ;
14 [label="X[0] <= 0.02\ngini = 0.3\nsamples = 8\nvalue = [9, 2]", fillcolor="#eb9d65"] ;
12 -> 14 ;
15 [label="gini = 0.0\nsamples = 4\nvalue = [6, 0]", fillcolor="#e58139"] ;
14 -> 15 ;
16 [label="X[0] <= 0.57\ngini = 0.48\nsamples = 4\nvalue = [3, 2]", fillcolor="#f6d5bd"] ;
14 -> 16 ;
17 [label="gini = 0.0\nsamples = 2\nvalue = [0, 2]", fillcolor="#399de5"] ;
16 -> 17 ;
18 [label="gini = 0.0\nsamples = 2\nvalue = [3, 0]", fillcolor="#e58139"] ;
16 -> 18 ;
19 [label="gini = 0.0\nsamples = 3\nvalue = [0, 4]", fillcolor="#399de5"] ;
11 -> 19 ;
20 [label="X[0] <= -0.05\ngini = 0.09\nsamples = 14\nvalue = [21, 1]", fillcolor="#e68742"] ;
10 -> 20 ;
21 [label="X[0] <= -0.23\ngini = 0.18\nsamples = 5\nvalue = [9, 1]", fillcolor="#e88f4f"] ;
20 -> 21 ;
22 [label="gini = 0.0\nsamples = 4\nvalue = [9, 0]", fillcolor="#e58139"] ;
21 -> 22 ;
23 [label="gini = 0.0\nsamples = 1\nvalue = [0, 1]", fillcolor="#399de5"] ;
21 -> 23 ;
24 [label="gini = 0.0\nsamples = 9\nvalue = [12, 0]", fillcolor="#e58139"] ;
20 -> 24 ;
}